\data\
ngram 1=7
ngram 2=4


\1-grams:
-5.234679	a	-3.3
-3.456783	b
-3.456783	c
-3.456783	d
-3.456783	e
0.0000000	<s>	-2.5
-4.333333	</s>

\2-grams:
-1.45678	a b
-1.45678	b c
-1.45678	d b
-1.30490	<s> a

\end\
