\data\
ngram 1=6
ngram 2=7
ngram 3=4
ngram 4=2

\1-grams:
-5.234679	a	-3.3
-3.456783	b
-3.456783	c
-3.456783	d
0.0000000	<s>	-2.5
-4.333333	</s>

\2-grams:
-1.45678	a b	-3.23
-1.45678	c d	-3.23
-1.45678	c b	-3.23
-1.45678	a d
-1.45678	b c	-3.23
-1.45678	b d	-3.23
-1.30490	<s> a	-4.2

\3-grams:
-0.34958	<s> a b	-9.9
-0.34958	a b c	-9.9
-0.34958	b c d	-9.9
-0.23940	a b </s>

\4-grams:
-0.7	<s> a b c
-0.9	a b c d

\end\
